  -1.3776672e+02  -1.3830207e+02  -1.1351420e+02  -1.7735592e+02  -1.4562141e+02  -1.0207087e+02  -6.2077595e+00   2.4745490e+02  -3.4000625e+01
   1.5040523e-01  -3.6200664e-02  -2.5946697e-02   2.8529610e-01   3.6798956e-02   5.0578497e-02   9.7640415e-02   8.0849243e-03   3.3328749e-02
   2.0515564e-02   7.3612208e-02  -1.7345097e-01   9.1950562e-02  -2.3775135e-02   1.8207083e-01  -1.6920288e-01   3.3844317e-02   5.2437449e-02
  -7.3483197e-02   8.6064100e-03   2.0356499e-01  -6.0033557e-02  -4.4639411e-03  -1.3655306e-01   9.8482436e-02   1.0983673e-01  -2.7042712e-02
   1.2337176e+02   2.5680301e+01  -9.3170747e+00   6.3733042e+01   5.8105064e+01   9.3766808e+01   5.7509775e+01   1.8738318e+01   1.0532656e+01
   3.3386627e-02   1.6606736e-01   8.9693147e-02   7.5900769e-02   1.0688698e-01   1.3757897e-01   8.7944403e-02  -5.3718126e-03   9.2220969e-02
  -3.1295265e-01  -3.3322925e-01  -3.1736456e-01  -4.0566277e-02  -2.5513219e-01  -3.4777512e-01  -2.1731406e-01  -8.9549436e-02  -1.4498236e-01
   1.7416055e-01   9.7240030e-02   1.4079263e-01  -5.2828138e-02   7.5422726e-02   1.3071331e-01   6.5322715e-02   6.0640043e-02   1.4914379e-02
  -3.6794476e+01   6.0907846e+01   1.8796723e-01   4.2254597e+02   5.8650942e+01   3.5191618e+01   3.3570332e+01  -4.8831418e+01   3.7971297e+01
   3.7719679e-01   2.2726674e-01   2.7292397e-01  -3.1433078e-01   3.1937054e-01   1.9725356e-01   2.1812286e-01   2.6567592e-01   1.3725464e-01
  -4.3593729e-01  -3.7561002e-01  -3.4734196e-01   1.1852650e-01  -6.4632944e-02  -1.7625679e-01  -3.6753834e-01  -8.7094601e-02  -2.0184756e-01
   1.0415573e-01   1.1766378e-01  -5.9466531e-03  -8.1921141e-02  -3.9354445e-02   1.4159173e-01   1.4914995e-01  -2.1530869e-01   4.3186097e-02
   2.0853382e-01  -1.2667172e+02  -1.4377409e+02   4.6090782e+02  -6.9428284e+01   7.6151453e+01   7.9540584e+00   8.7957532e+00  -3.1202676e+01
  -1.5631687e-03   6.6926625e-02   5.6487186e-02   1.4773532e-01   1.7790804e-01   2.4327104e-01   1.4323400e-01   1.8289340e-01   8.1337259e-02
  -2.3966762e-01   5.4641200e-02   2.8096308e-02  -2.0510692e-01  -2.7265485e-01  -6.7331885e-01  -3.2349520e-01  -1.7270551e-01  -6.2463535e-02
   8.1301019e-02  -1.1446715e-01  -1.0288896e-01   2.8844534e-02   5.0978422e-02   2.8917724e-01   6.4707010e-02   9.2286591e-02  -4.7729019e-02
  -1.7212118e+02   3.2310246e+02   3.3209645e+02  -2.1687379e+02   2.3170851e+01  -1.4726826e+02   2.0102519e+01   4.4210389e+01   6.7036914e+01
   2.0679423e-02  -1.8388829e-01  -5.0900352e-01   2.7907828e-01  -2.4956306e-01   2.7348224e-01  -2.0756337e-01  -2.7463133e-01   2.0862670e-02
  -1.8045663e-01  -1.7079524e-01  -1.4083872e-01  -3.5064331e-01   2.7738731e-02  -3.0664260e-01  -2.3877557e-01   1.9196982e-03  -1.1052316e-01
   2.9317154e-02  -1.2386852e-01  -6.0673257e-02   1.6674390e-02  -1.5866691e-01  -3.0154495e-02   6.6639591e-02  -2.0696949e-01  -2.1647890e-02
   4.9061937e+02  -3.2039017e+01   2.8143686e+02   1.3995244e+01   6.8483827e+01  -2.5233697e+01   7.7975775e+00  -1.0065841e+02   1.8168176e+01
   1.8407705e-01   6.8368128e-02   2.5517654e-01  -2.4724581e-03   1.3901159e-01   7.8752014e-02   6.0292914e-02  -1.0354442e-01   2.7954059e-02
  -8.8928782e-01   2.0275085e-02  -1.3069424e+00  -1.4024381e-01  -3.5573942e-01   1.1741423e-03  -1.2822075e-01   4.3656296e-01  -9.1432910e-02
   4.9582766e-01  -1.2212367e-01   6.2753887e-01  -1.1727027e-03  -3.6899476e-02  -1.6459925e-01  -6.1163947e-02  -2.9051008e-01   4.1724261e-04
   1.1345040e+02  -2.0948776e+01   2.4053511e+02   3.6655256e+01   3.6071056e+01   4.0801023e+01   9.0701380e+01  -9.2512703e+01  -2.2186407e+00
   1.3515458e-03   2.0744921e-01  -1.7041139e-01  -9.9155602e-02   1.9328412e-01   1.2991785e-01   2.1904015e-01   3.7040328e-01  -7.4158646e-04
  -4.8926361e-01  -3.0445344e-01  -2.6957460e-01   1.0097921e-01  -3.2483533e-01  -2.9681043e-01  -3.2258167e-01  -1.0268191e-01  -3.7838067e-03
   2.7259023e-01   7.9016555e-02   1.3163135e-01  -1.2899549e-01   1.9115119e-02   8.1260077e-02   1.0837000e-01  -1.4039036e-01  -2.1100878e-02
  -8.1847384e+01   5.2495358e+01   6.9559584e+01  -8.8049539e+01   1.1652936e+02  -1.6042902e+01  -7.5902789e+01   1.3862607e+02  -4.1130044e+00
  -1.2838802e-02   2.3534983e-01   2.1248401e-01  -8.6731611e-02   5.0594635e-02  -1.3203471e-01  -8.0631345e-03   3.1621417e-01   4.2304938e-03
  -4.8592792e-03  -3.9950713e-01  -4.3197637e-01   8.9020490e-02  -2.7515816e-01   6.5368958e-02  -1.7477185e-01  -1.1632992e-01  -2.7032347e-02
   1.9929603e-02   2.9275466e-01   3.2311075e-01  -6.6960341e-02   3.2756221e-01  -1.8595426e-02   1.3155448e-01  -2.2573805e-01   1.9361675e-02
